   0.00000,  -0.00000
  -0.00000,   0.00000
   0.00000,  -0.00000
  -0.00781,   0.00781
  -0.00000,   0.00000
   0.00000,  -0.00000
  -0.00000,   0.00000
   0.00781,  -0.00781
   0.00000,  -0.00000
  -0.00000,   0.00000
   0.00000,  -0.00000
  -0.00000,   0.00000
  -0.00781,   0.00781
   0.00000,  -0.00000
  -0.00000,   0.00000
   0.00000,  -0.00000
   0.00781,  -0.00781
  -0.00000,   0.00000
   0.00000,  -0.00000
  -0.00000,   0.00000
   0.00781,  -0.00781
   0.00000,  -0.00000
  -0.00000,   0.00000
   0.00000,  -0.00000
  -0.00000,   0.00000
  -0.00000,   0.00000
   0.00000,  -0.00000
  -0.00000,   0.00000
   0.00000,  -0.00000
   0.00000,  -0.00000
  -0.00000,   0.00000
   0.00000,  -0.00000
  -0.00000,   0.00000
  -0.00781,   0.00781
  -0.00000,   0.00000
   0.00000,  -0.00000
   0.00000,  -0.00000
  -0.00000,   0.00000
  -0.00000,   0.00000
   0.00000,  -0.00000
  -0.00000,   0.00000
   0.00781,  -0.00781
   0.00000,  -0.00000
  -0.00000,   0.00000
   0.00781,  -0.00781
  -0.00781,   0.00781
  -0.00781,   0.00781
   0.00000,  -0.00000
  -0.00000,   0.00000
   0.00781,  -0.00781
  -0.00000,   0.00000
  -0.00781,   0.00781
   0.00000,  -0.00000
  -0.00000,   0.00000
   0.00781,  -0.00781
  -0.00000,   0.00000
  -0.00000,   0.00000
   0.00000,  -0.00000
   0.00000,  -0.00000
  -0.00000,   0.00000
   0.00000,  -0.00000
  -0.00000,   0.00000
   0.00781,  -0.00781
   0.00000,  -0.00000
  -0.00000,   0.00000
   0.00781,  -0.00781
  -0.00000,   0.00000
  -0.00781,   0.00781
   0.00000,  -0.00000
  -0.00000,   0.00000
   0.00000,  -0.00000
  -0.00781,   0.00781
  -0.00000,   0.00000
   0.00000,  -0.00000
  -0.00000,   0.00000
   0.00781,  -0.00781
  -0.00000,   0.00000
  -0.00000,   0.00000
   0.00000,  -0.00000
   0.00000,  -0.00000
  -0.00781,   0.00781
   0.00000,  -0.00000
  -0.00000,   0.00000
   0.00781,  -0.00781
  -0.00000,   0.00000
  -0.00000,   0.00000
   0.00000,  -0.00000
  -0.00000,   0.00000
  -0.00781,   0.00781
   0.00000,  -0.00000
  -0.00000,   0.00000
   0.00781,  -0.00781
   0.00000,  -0.00000
   0.00000,  -0.00000
   0.00000,  -0.00000
  -0.00000,   0.00000
   0.00781,  -0.00781
   0.00000,  -0.00000
  -0.00000,   0.00000
   0.00000,  -0.00000
  -0.00000,   0.00000
  -0.00781,   0.00781
   0.00000,  -0.00000
   0.00000,  -0.00000
   0.00000,  -0.00000
  -0.00000,   0.00000
   0.00000,  -0.00000
  -0.00000,   0.00000
  -0.00000,   0.00000
   0.00000,  -0.00000
   0.00000,  -0.00000
   0.00000,  -0.00000
   0.00000,  -0.00000
  -0.00000,   0.00000
  -0.00000,   0.00000
  -0.00000,   0.00000
   0.00000,  -0.00000
  -0.00000,   0.00000
  -0.00000,   0.00000
   0.00781,  -0.00781
  -0.00781,   0.00781
   0.00000,  -0.00000
  -0.00000,   0.00000
  -0.00000,   0.00000
   0.00781,  -0.00781
  -0.00781,   0.00781
   0.00000,  -0.00000
   0.00781,  -0.00781
  -0.00781,   0.00781
   0.00000,  -0.00000
  -0.00000,   0.00000
  -0.00000,   0.00000
   0.00000,  -0.00000
  -0.00000,   0.00000
   0.00000,  -0.00000
   0.00000,  -0.00000
   0.00000,  -0.00000
   0.00781,  -0.00781
  -0.00000,   0.00000
  -0.00000,   0.00000
  -0.00000,   0.00000
   0.00000,  -0.00000
  -0.00000,   0.00000
  -0.00781,   0.00781
   0.00781,  -0.00781
   0.00000,  -0.00000
   0.00000,  -0.00000
   0.00781,  -0.00781
  -0.00000,   0.00000
   0.00000,  -0.00000
  -0.00000,   0.00000
   0.00000,  -0.00000
  -0.00000,   0.00000
  -0.00000,   0.00000
   0.00000,  -0.00000
  -0.00000,   0.00000
   0.00000,  -0.00000
   0.00781,  -0.00781
   0.00000,  -0.00000
  -0.00000,   0.00000
   0.00000,  -0.00000
  -0.00000,   0.00000
   0.00000,  -0.00000
   0.00000,  -0.00000
   0.00781,  -0.00781
  -0.00000,   0.00000
  -0.00000,   0.00000
  -0.00000,   0.00000
   0.00000,  -0.00000
  -0.00781,   0.00781
   0.00000,  -0.00000
   0.00000,  -0.00000
   0.00781,  -0.00781
   0.00000,  -0.00000
  -0.00000,   0.00000
   0.00000,  -0.00000
   0.00000,  -0.00000
  -0.00781,   0.00781
  -0.00000,   0.00000
   0.00000,  -0.00000
   0.00000,  -0.00000
  -0.00000,   0.00000
  -0.00000,   0.00000
   0.00000,  -0.00000
  -0.00000,   0.00000
   0.00781,  -0.00781
   0.00000,  -0.00000
  -0.00000,   0.00000
   0.00000,  -0.00000
  -0.00000,   0.00000
  -0.00781,   0.00781
  -0.00000,   0.00000
  -0.00000,   0.00000
   0.00781,  -0.00781
  -0.00000,   0.00000
  -0.00781,   0.00781
   0.00781,  -0.00781
  -0.00000,   0.00000
   0.00781,  -0.00781
  -0.00000,   0.00000
  -0.00000,   0.00000
   0.00000,  -0.00000
   0.00000,  -0.00000
  -0.00000,   0.00000
  -0.00000,   0.00000
  -0.00000,   0.00000
   0.00781,  -0.00781
  -0.00781,   0.00781
  -0.00781,   0.00781
   0.00781,  -0.00781
  -0.00000,   0.00000
  -0.00781,   0.00781
  -0.00000,   0.00000
  -0.00000,   0.00000
   0.00000,  -0.00000
  -0.00000,   0.00000
  -0.00000,   0.00000
   0.00781,  -0.00781
  -0.00000,   0.00000
   0.00781,  -0.00781
   0.00000,  -0.00000
  -0.00000,   0.00000
   0.00781,  -0.00781
   0.00000,  -0.00000
  -0.00781,   0.00781
   0.00000,  -0.00000
   0.00000,  -0.00000
   0.00781,  -0.00781
  -0.00781,   0.00781
  -0.00781,   0.00781
   0.00781,  -0.00781
   0.00000,  -0.00000
  -0.00781,   0.00781
   0.00000,  -0.00000
  -0.00000,   0.00000
   0.00781,  -0.00781
  -0.00000,   0.00000
  -0.00000,   0.00000
   0.00000,  -0.00000
  -0.00000,   0.00000
   0.00781,  -0.00781
  -0.00000,   0.00000
  -0.00781,   0.00781
   0.00000,  -0.00000
  -0.00000,   0.00000
  -0.00781,   0.00781
   0.00000,  -0.00000
  -0.00781,   0.00781
   0.00000,  -0.00000
  -0.00000,   0.00000
  -0.00000,   0.00000
   0.00000,  -0.00000
  -0.00000,   0.00000
   0.00781,  -0.00781
  -0.00781,   0.00781
   0.00781,  -0.00781
  -0.00000,   0.00000
   0.00000,  -0.00000
   0.00000,  -0.00000
  -0.00000,   0.00000
   0.00781,  -0.00781
   0.00000,  -0.00000
  -0.00000,   0.00000
   0.00000,  -0.00000
  -0.00000,   0.00000
  -0.00000,   0.00000
   0.00000,  -0.00000
  -0.00000,   0.00000
   0.00781,  -0.00781
  -0.00781,   0.00781
   0.00000,  -0.00000
   0.00781,  -0.00781
  -0.00000,   0.00000
   0.00781,  -0.00781
  -0.00000,   0.00000
   0.00000,  -0.00000
  -0.00000,   0.00000
   0.00000,  -0.00000
   0.00000,  -0.00000
   0.00000,  -0.00000
   0.00781,  -0.00781
  -0.00000,   0.00000
   0.00000,  -0.00000
   0.00000,  -0.00000
  -0.00000,   0.00000
   0.00000,  -0.00000
  -0.00781,   0.00781
  -0.00781,   0.00781
   0.00781,  -0.00781
  -0.00000,   0.00000
   0.00000,  -0.00000
   0.00781,  -0.00781
  -0.00000,   0.00000
   0.00781,  -0.00781
  -0.00000,   0.00000
   0.00000,  -0.00000
   0.00000,  -0.00000
  -0.00000,   0.00000
   0.00000,  -0.00000
   0.00000,  -0.00000
  -0.00781,   0.00781
   0.00000,  -0.00000
   0.00000,  -0.00000
   0.00000,  -0.00000
  -0.00000,   0.00000
  -0.00000,   0.00000
   0.00000,  -0.00000
   0.00000,  -0.00000
   0.00781,  -0.00781
  -0.00781,   0.00781
  -0.00000,   0.00000
  -0.00000,   0.00000
   0.00781,  -0.00781
  -0.00781,   0.00781
   0.00000,  -0.00000
   0.00000,  -0.00000
   0.00781,  -0.00781
   0.00781,  -0.00781
  -0.00000,   0.00000
   0.00000,  -0.00000
   0.00000,  -0.00000
  -0.00781,   0.00781
  -0.00000,   0.00000
   0.00000,  -0.00000
   0.00000,  -0.00000
   0.00000,  -0.00000
  -0.00000,   0.00000
   0.00781,  -0.00781
  -0.00000,   0.00000
   0.00781,  -0.00781
  -0.00000,   0.00000
  -0.00781,   0.00781
   0.00000,  -0.00000
   0.00000,  -0.00000
  -0.00781,   0.00781
   0.00000,  -0.00000
   0.00000,  -0.00000
   0.00781,  -0.00781
  -0.00000,   0.00000
  -0.00781,   0.00781
   0.00000,  -0.00000
   0.00000,  -0.00000
   0.00781,  -0.00781
  -0.00781,   0.00781
  -0.00000,   0.00000
   0.00000,  -0.00000
   0.00000,  -0.00000
  -0.00781,   0.00781
   0.00781,  -0.00781
  -0.00000,   0.00000
   0.00781,  -0.00781
   0.00000,  -0.00000
  -0.00781,   0.00781
   0.00781,  -0.00781
  -0.00000,   0.00000
  -0.00781,   0.00781
   0.00781,  -0.00781
  -0.00781,   0.00781
   0.00781,  -0.00781
   0.00000,  -0.00000
  -0.00000,   0.00000
   0.00781,  -0.00781
   0.00000,  -0.00000
   0.00781,  -0.00781
   0.00000,  -0.00000
  -0.00781,   0.00781
   0.00781,  -0.00781
  -0.00000,   0.00000
   0.00000,  -0.00000
  -0.00000,   0.00000
   0.00000,  -0.00000
  -0.00000,   0.00000
  -0.00000,   0.00000
   0.00000,  -0.00000
  -0.00000,   0.00000
  -0.00000,   0.00000
   0.00781,  -0.00781
  -0.00000,   0.00000
   0.00000,  -0.00000
  -0.00000,   0.00000
   0.00781,  -0.00781
   0.00000,  -0.00000
   0.00000,  -0.00000
   0.00000,  -0.00000
  -0.00000,   0.00000
   0.00000,  -0.00000
   0.00000,  -0.00000
   0.00000,  -0.00000
   0.00000,  -0.00000
  -0.00000,   0.00000
  -0.00000,   0.00000
  -0.00781,   0.00781
   0.00000,  -0.00000
   0.00781,  -0.00781
  -0.00781,   0.00781
   0.00000,  -0.00000
  -0.00000,   0.00000
  -0.00781,   0.00781
   0.00781,  -0.00781
  -0.00000,   0.00000
   0.00000,  -0.00000
   0.00000,  -0.00000
  -0.00000,   0.00000
   0.00000,  -0.00000
  -0.00000,   0.00000
  -0.00000,   0.00000
   0.00000,  -0.00000
  -0.00781,   0.00781
   0.00000,  -0.00000
  -0.00000,   0.00000
   0.00781,  -0.00781
   0.00000,  -0.00000
  -0.00781,   0.00781
   0.00000,  -0.00000
  -0.00000,   0.00000
   0.00781,  -0.00781
  -0.00000,   0.00000
   0.00781,  -0.00781
  -0.00000,   0.00000
  -0.00000,   0.00000
   0.00781,  -0.00781
  -0.00781,   0.00781
   0.00781,  -0.00781
  -0.00000,   0.00000
  -0.00000,   0.00000
   0.00781,  -0.00781
  -0.00000,   0.00000
  -0.00781,   0.00781
   0.00000,  -0.00000
  -0.00000,   0.00000
   0.00781,  -0.00781
   0.00000,  -0.00000
  -0.00781,   0.00781
   0.00781,  -0.00781
  -0.00781,   0.00781
   0.00000,  -0.00000
   0.00000,  -0.00000
  -0.00781,   0.00781
   0.00781,  -0.00781
  -0.01562,   0.01562
  -0.00781,   0.00781
   0.01562,  -0.01562
  -0.00781,   0.00781
   0.00781,  -0.00781
   0.01562,  -0.01562
  -0.00000,   0.00000
   0.00781,  -0.00781
  -0.00781,   0.00781
  -0.00000,   0.00000
   0.01562,  -0.01562
  -0.00781,   0.00781
   0.00781,  -0.00781
  -0.02344,   0.02344
  -0.00781,   0.00781
   0.00781,  -0.00781
  -0.00781,   0.00781
   0.00781,  -0.00781
   0.01562,  -0.01562
  -0.00781,   0.00781
   0.00781,  -0.00781
  -0.00781,   0.00781
  -0.00781,   0.00781
   0.00781,  -0.00781
  -0.00781,   0.00781
   0.00781,  -0.00781
   0.01562,  -0.01562
  -0.00781,   0.00781
   0.00781,  -0.00781
  -0.00781,   0.00781
   0.00000,  -0.00000
   0.00781,  -0.00781
  -0.00781,   0.00781
   0.00781,  -0.00781
  -0.00781,   0.00781
  -0.00000,   0.00000
   0.00781,  -0.00781
  -0.00781,   0.00781
   0.00781,  -0.00781
   0.00781,  -0.00781
  -0.00781,   0.00781
   0.00781,  -0.00781
  -0.00781,   0.00781
   0.00000,  -0.00000
  -0.00781,   0.00781
   0.00781,  -0.00781
  -0.00000,   0.00000
   0.00781,  -0.00781
   0.00000,  -0.00000
  -0.00781,   0.00781
   0.00781,  -0.00781
  -0.00000,   0.00000
  -0.00781,   0.00781
   0.00781,  -0.00781
  -0.00000,   0.00000
   0.00781,  -0.00781
   0.00781,  -0.00781
  -0.00781,   0.00781
   0.00781,  -0.00781
  -0.00000,   0.00000
  -0.00781,   0.00781
   0.00781,  -0.00781
  -0.00781,   0.00781
   0.00781,  -0.00781
   0.00781,  -0.00781
  -0.00781,   0.00781
   0.00000,  -0.00000
   0.01562,  -0.01562
  -0.00781,   0.00781
  -0.00781,   0.00781
   0.01562,  -0.01562
  -0.00781,   0.00781
   0.00781,  -0.00781
   0.00781,  -0.00781
  -0.01562,   0.01562
   0.01562,  -0.01562
  -0.00781,   0.00781
  -0.00781,   0.00781
   0.00781,  -0.00781
  -0.01562,   0.01562
   0.00781,  -0.00781
  -0.00000,   0.00000
  -0.00781,   0.00781
   0.01562,  -0.01562
  -0.00781,   0.00781
   0.00000,  -0.00000
   0.00781,  -0.00781
  -0.01562,   0.01562
   0.01562,  -0.01562
  -0.00781,   0.00781
   0.00000,  -0.00000
   0.00000,  -0.00000
  -0.00000,   0.00000
  -0.00000,   0.00000
   0.00781,  -0.00781
   0.00000,  -0.00000
   0.00000,  -0.00000
  -0.00000,   0.00000
  -0.00000,   0.00000
   0.00000,  -0.00000
  -0.00000,   0.00000
  -0.00000,   0.00000
  -0.00781,   0.00781
   0.00000,  -0.00000
   0.00000,  -0.00000
  -0.00000,   0.00000
  -0.00781,   0.00781
   0.00781,  -0.00781
  -0.00000,   0.00000
   0.00000,  -0.00000
  -0.00781,   0.00781
  -0.00000,   0.00000
   0.00000,  -0.00000
   0.00000,  -0.00000
   0.00000,  -0.00000
   0.00000,  -0.00000
   0.00000,  -0.00000
  -0.00000,   0.00000
   0.00781,  -0.00781
  -0.00781,   0.00781
  -0.00000,   0.00000
   0.00000,  -0.00000
   0.00000,  -0.00000
   0.00000,  -0.00000
   0.00000,  -0.00000
  -0.00781,   0.00781
   0.00000,  -0.00000
  -0.00000,   0.00000
  -0.00000,   0.00000
   0.00000,  -0.00000
  -0.00000,   0.00000
   0.00781,  -0.00781
  -0.00781,   0.00781
  -0.00000,   0.00000
   0.00000,  -0.00000
   0.00000,  -0.00000
  -0.00781,   0.00781
  -0.00000,   0.00000
   0.00000,  -0.00000
  -0.00781,   0.00781
   0.00000,  -0.00000
   0.00781,  -0.00781
  -0.00000,   0.00000
   0.00000,  -0.00000
  -0.00781,   0.00781
  -0.00781,   0.00781
   0.00781,  -0.00781
  -0.00000,   0.00000
   0.00000,  -0.00000
   0.00781,  -0.00781
  -0.00000,   0.00000
   0.00000,  -0.00000
  -0.00781,   0.00781
  -0.00000,   0.00000
   0.00781,  -0.00781
  -0.00000,   0.00000
   0.00000,  -0.00000
  -0.00781,   0.00781
   0.00000,  -0.00000
   0.00000,  -0.00000
   0.00000,  -0.00000
   0.00000,  -0.00000
   0.00000,  -0.00000
  -0.00000,   0.00000
  -0.00000,   0.00000
  -0.00000,   0.00000
  -0.00000,   0.00000
   0.00000,  -0.00000
   0.00000,  -0.00000
   0.00000,  -0.00000
   0.00781,  -0.00781
   0.00000,  -0.00000
   0.00000,  -0.00000
   0.00000,  -0.00000
  -0.00781,   0.00781
   0.00000,  -0.00000
   0.00000,  -0.00000
  -0.00000,   0.00000
  -0.00000,   0.00000
  -0.00000,   0.00000
  -0.00000,   0.00000
   0.00000,  -0.00000
  -0.00000,   0.00000
   0.00000,  -0.00000
   0.00000,  -0.00000
   0.00000,  -0.00000
   0.00000,  -0.00000
   0.00000,  -0.00000
   0.00000,  -0.00000
  -0.00000,   0.00000
   0.00000,  -0.00000
  -0.00000,   0.00000
  -0.00000,   0.00000
  -0.00000,   0.00000
  -0.00000,   0.00000
   0.00000,  -0.00000
   0.00000,  -0.00000
   0.00000,  -0.00000
  -0.00000,   0.00000
   0.00000,  -0.00000
  -0.00781,   0.00781
   0.00000,  -0.00000
  -0.00000,   0.00000
  -0.00000,   0.00000
   0.00000,  -0.00000
  -0.00000,   0.00000
   0.00000,  -0.00000
  -0.00000,   0.00000
  -0.00000,   0.00000
   0.00000,  -0.00000
  -0.00000,   0.00000
  -0.00000,   0.00000
   0.00000,  -0.00000
   0.00000,  -0.00000
   0.00000,  -0.00000
  -0.00000,   0.00000
  -0.00000,   0.00000
  -0.00000,   0.00000
  -0.00000,   0.00000
   0.00000,  -0.00000
  -0.00000,   0.00000
  -0.00000,   0.00000
  -0.00000,   0.00000
   0.00000,  -0.00000
   0.00000,  -0.00000
   0.00781,  -0.00781
  -0.00000,   0.00000
  -0.00000,   0.00000
  -0.00000,   0.00000
  -0.00000,   0.00000
  -0.00781,   0.00781
  -0.00000,   0.00000
   0.00000,  -0.00000
   0.00781,  -0.00781
   0.00000,  -0.00000
   0.00000,  -0.00000
  -0.00000,   0.00000
  -0.00000,   0.00000
  -0.00781,   0.00781
   0.00000,  -0.00000
   0.00000,  -0.00000
   0.00000,  -0.00000
  -0.00000,   0.00000
  -0.00000,   0.00000
   0.00000,  -0.00000
  -0.00000,   0.00000
   0.00781,  -0.00781
  -0.00000,   0.00000
  -0.00000,   0.00000
  -0.00000,   0.00000
   0.00000,  -0.00000
  -0.00781,   0.00781
   0.00000,  -0.00000
  -0.00000,   0.00000
   0.00000,  -0.00000
   0.00781,  -0.00781
  -0.00000,   0.00000
   0.00000,  -0.00000
  -0.00000,   0.00000
  -0.00781,   0.00781
  -0.00000,   0.00000
  -0.00000,   0.00000
   0.00000,  -0.00000
  -0.00781,   0.00781
  -0.00000,   0.00000
   0.00000,  -0.00000
  -0.00000,   0.00000
   0.00781,  -0.00781
   0.00000,  -0.00000
  -0.00781,   0.00781
   0.00000,  -0.00000
  -0.00000,   0.00000
  -0.00781,   0.00781
  -0.00000,   0.00000
   0.00000,  -0.00000
   0.00000,  -0.00000
  -0.00000,   0.00000
  -0.00000,   0.00000
   0.00000,  -0.00000
   0.00000,  -0.00000
   0.00781,  -0.00781
  -0.00000,   0.00000
   0.00000,  -0.00000
   0.00000,  -0.00000
   0.00781,  -0.00781
  -0.00000,   0.00000
  -0.00000,   0.00000
  -0.00000,   0.00000
   0.00781,  -0.00781
   0.00000,  -0.00000
  -0.00000,   0.00000
   0.00000,  -0.00000
  -0.00000,   0.00000
  -0.00781,   0.00781
   0.00000,  -0.00000
  -0.00000,   0.00000
   0.00000,  -0.00000
  -0.00000,   0.00000
   0.00781,  -0.00781
  -0.00000,   0.00000
   0.00000,  -0.00000
  -0.00000,   0.00000
  -0.00000,   0.00000
   0.00000,  -0.00000
  -0.00781,   0.00781
   0.00000,  -0.00000
   0.00000,  -0.00000
  -0.00781,   0.00781
   0.00781,  -0.00781
  -0.00781,   0.00781
  -0.00000,   0.00000
   0.00781,  -0.00781
  -0.00781,   0.00781
   0.00000,  -0.00000
  -0.00781,   0.00781
   0.00000,  -0.00000
   0.00000,  -0.00000
  -0.00781,   0.00781
   0.00000,  -0.00000
   0.00781,  -0.00781
  -0.00000,   0.00000
   0.00000,  -0.00000
  -0.00781,   0.00781
   0.00000,  -0.00000
   0.00781,  -0.00781
  -0.00781,   0.00781
   0.00000,  -0.00000
   0.00781,  -0.00781
   0.00000,  -0.00000
   0.00000,  -0.00000
  -0.00781,   0.00781
   0.00000,  -0.00000
   0.00781,  -0.00781
  -0.00781,   0.00781
   0.00000,  -0.00000
  -0.00781,   0.00781
   0.00000,  -0.00000
   0.00781,  -0.00781
  -0.00781,   0.00781
   0.00000,  -0.00000
   0.00781,  -0.00781
  -0.00000,   0.00000
   0.00000,  -0.00000
  -0.00000,   0.00000
  -0.00000,   0.00000
   0.00000,  -0.00000
  -0.00000,   0.00000
  -0.00000,   0.00000
  -0.00000,   0.00000
  -0.00000,   0.00000
   0.00000,  -0.00000
  -0.00000,   0.00000
   0.00000,  -0.00000
   0.00000,  -0.00000
  -0.00000,   0.00000
  -0.00000,   0.00000
   0.00000,  -0.00000
  -0.00000,   0.00000
   0.00000,  -0.00000
   0.00000,  -0.00000
   0.00000,  -0.00000
   0.00000,  -0.00000
   0.00000,  -0.00000
  -0.00000,   0.00000
  -0.00000,   0.00000
   0.00000,  -0.00000
   0.00000,  -0.00000
   0.00000,  -0.00000
  -0.00000,   0.00000
   0.00781,  -0.00781
   0.00000,  -0.00000
  -0.00000,   0.00000
  -0.00000,   0.00000
  -0.00000,   0.00000
  -0.00000,   0.00000
  -0.00000,   0.00000
   0.00000,  -0.00000
   0.00781,  -0.00781
  -0.00000,   0.00000
   0.00000,  -0.00000
  -0.00000,   0.00000
   0.00000,  -0.00000
  -0.00781,   0.00781
   0.00000,  -0.00000
   0.00000,  -0.00000
  -0.00000,   0.00000
   0.00781,  -0.00781
   0.00000,  -0.00000
   0.00000,  -0.00000
  -0.00000,   0.00000
   0.00781,  -0.00781
  -0.00000,   0.00000
  -0.00781,   0.00781
   0.00000,  -0.00000
  -0.00000,   0.00000
  -0.00781,   0.00781
   0.00000,  -0.00000
  -0.00000,   0.00000
   0.00781,  -0.00781
   0.00000,  -0.00000
  -0.00781,   0.00781
   0.00000,  -0.00000
  -0.00000,   0.00000
   0.00781,  -0.00781
   0.00000,  -0.00000
  -0.00000,   0.00000
   0.00000,  -0.00000
   0.00000,  -0.00000
  -0.00781,   0.00781
   0.00000,  -0.00000
  -0.00000,   0.00000
   0.00781,  -0.00781
  -0.00781,   0.00781
   0.00781,  -0.00781
  -0.00000,   0.00000
   0.00781,  -0.00781
   0.00781,  -0.00781
  -0.00000,   0.00000
   0.00000,  -0.00000
  -0.00781,   0.00781
  -0.00781,   0.00781
   0.00781,  -0.00781
  -0.00000,   0.00000
   0.00781,  -0.00781
  -0.00000,   0.00000
  -0.00000,   0.00000
   0.00000,  -0.00000
  -0.00781,   0.00781
   0.00000,  -0.00000
   0.00781,  -0.00781
  -0.00000,   0.00000
   0.00000,  -0.00000
  -0.00781,   0.00781
  -0.00781,   0.00781
   0.00781,  -0.00781
  -0.00781,   0.00781
  -0.00000,   0.00000
   0.00781,  -0.00781
  -0.00000,   0.00000
   0.00000,  -0.00000
  -0.00781,   0.00781
  -0.00781,   0.00781
   0.00781,  -0.00781
  -0.00000,   0.00000
   0.00000,  -0.00000
  -0.00781,   0.00781
   0.00000,  -0.00000
   0.00781,  -0.00781
  -0.00781,   0.00781
  -0.00000,   0.00000
   0.00781,  -0.00781
  -0.00000,   0.00000
   0.00000,  -0.00000
  -0.00781,   0.00781
   0.00000,  -0.00000
   0.00781,  -0.00781
  -0.00000,   0.00000
   0.00000,  -0.00000
  -0.00000,   0.00000
   0.00000,  -0.00000
   0.00000,  -0.00000
  -0.00000,   0.00000
  -0.00781,   0.00781
   0.00000,  -0.00000
  -0.00000,   0.00000
   0.00000,  -0.00000
  -0.00000,   0.00000
  -0.00000,   0.00000
   0.00000,  -0.00000
  -0.00000,   0.00000
   0.00000,  -0.00000
   0.00000,  -0.00000
  -0.00000,   0.00000
   0.00000,  -0.00000
  -0.00000,   0.00000
  -0.00000,   0.00000
   0.00000,  -0.00000
  -0.00000,   0.00000
   0.00000,  -0.00000
  -0.00000,   0.00000
   0.00000,  -0.00000
   0.00000,  -0.00000
   0.00000,  -0.00000
   0.00000,  -0.00000
  -0.00000,   0.00000
   0.00000,  -0.00000
  -0.00000,   0.00000
   0.00000,  -0.00000
  -0.00781,   0.00781
  -0.00000,   0.00000
   0.00000,  -0.00000
  -0.00000,   0.00000
  -0.00000,   0.00000
   0.00000,  -0.00000
   0.00000,  -0.00000
   0.00000,  -0.00000
  -0.00781,   0.00781
  -0.00000,   0.00000
   0.00000,  -0.00000
  -0.00000,   0.00000
   0.00000,  -0.00000
  -0.00000,   0.00000
  -0.00000,   0.00000
  -0.00000,   0.00000
  -0.00781,   0.00781
  -0.00781,   0.00781
   0.00781,  -0.00781
  -0.00781,   0.00781
   0.00781,  -0.00781
   0.00000,  -0.00000
  -0.00781,   0.00781
   0.00781,  -0.00781
  -0.00781,   0.00781
   0.01562,  -0.01562
   0.00781,  -0.00781
  -0.00781,   0.00781
   0.00781,  -0.00781
  -0.00781,   0.00781
  -0.00781,   0.00781
   0.00781,  -0.00781
  -0.00781,   0.00781
   0.00781,  -0.00781
   0.00781,  -0.00781
  -0.00781,   0.00781
   0.00781,  -0.00781
  -0.00781,   0.00781
  -0.01562,   0.01562
  -0.00781,   0.00781
   0.00781,  -0.00781
  -0.00781,   0.00781
  -0.00000,   0.00000
   0.00781,  -0.00781
  -0.00781,   0.00781
   0.00000,  -0.00000
  -0.00781,   0.00781
  -0.00000,   0.00000
   0.00781,  -0.00781
  -0.00781,   0.00781
   0.00000,  -0.00000
   0.00781,  -0.00781
  -0.00781,   0.00781
   0.00781,  -0.00781
  -0.00781,   0.00781
  -0.00000,   0.00000
   0.00781,  -0.00781
  -0.00781,   0.00781
   0.00781,  -0.00781
  -0.00781,   0.00781
  -0.00781,   0.00781
   0.00781,  -0.00781
  -0.00000,   0.00000
   0.00000,  -0.00000
   0.00000,  -0.00000
  -0.00000,   0.00000
  -0.00000,   0.00000
  -0.00000,   0.00000
  -0.00000,   0.00000
   0.00000,  -0.00000
  -0.00781,   0.00781
  -0.00000,   0.00000
   0.00781,  -0.00781
  -0.00000,   0.00000
   0.00000,  -0.00000
  -0.00000,   0.00000
   0.00781,  -0.00781
   0.00000,  -0.00000
  -0.00000,   0.00000
   0.00000,  -0.00000
  -0.00781,   0.00781
  -0.00000,   0.00000
   0.00000,  -0.00000
  -0.00000,   0.00000
  -0.00000,   0.00000
   0.00781,  -0.00781
  -0.00781,   0.00781
   0.00000,  -0.00000
  -0.00781,   0.00781
   0.00000,  -0.00000
   0.00781,  -0.00781
  -0.00000,   0.00000
  -0.00000,   0.00000
   0.00781,  -0.00781
  -0.00000,   0.00000
   0.00000,  -0.00000
  -0.00781,   0.00781
   0.00781,  -0.00781
   0.00781,  -0.00781
  -0.00000,   0.00000
  -0.00000,   0.00000
  -0.00781,   0.00781
  -0.00781,   0.00781
   0.00000,  -0.00000
  -0.00000,   0.00000
   0.00000,  -0.00000
   0.00781,  -0.00781
  -0.00000,   0.00000
  -0.00000,   0.00000
  -0.00781,   0.00781
   0.00000,  -0.00000
   0.00000,  -0.00000
  -0.00000,   0.00000
   0.00000,  -0.00000
   0.00781,  -0.00781
   0.00000,  -0.00000
   0.00000,  -0.00000
   0.00000,  -0.00000
   0.00000,  -0.00000
  -0.00781,   0.00781
  -0.00000,   0.00000
   0.00000,  -0.00000
   0.00000,  -0.00000
   0.00000,  -0.00000
   0.00000,  -0.00000
  -0.00000,   0.00000
   0.00000,  -0.00000
  -0.00781,   0.00781
  -0.00000,   0.00000
   0.00000,  -0.00000
  -0.00000,   0.00000
   0.00781,  -0.00781
   0.00000,  -0.00000
  -0.00000,   0.00000
   0.00000,  -0.00000
  -0.00781,   0.00781
  -0.00000,   0.00000
   0.00781,  -0.00781
  -0.00781,   0.00781
   0.00000,  -0.00000
   0.00781,  -0.00781
  -0.00000,   0.00000
   0.00000,  -0.00000
  -0.00000,   0.00000
   0.00781,  -0.00781
   0.00781,  -0.00781
  -0.00000,   0.00000
  -0.00000,   0.00000
   0.00781,  -0.00781
  -0.00000,   0.00000
   0.00781,  -0.00781
  -0.00781,   0.00781
   0.00000,  -0.00000
   0.00781,  -0.00781
  -0.00000,   0.00000
   0.00000,  -0.00000
   0.00000,  -0.00000
  -0.00000,   0.00000
   0.00000,  -0.00000
  -0.00000,   0.00000
  -0.00000,   0.00000
  -0.00000,   0.00000
  -0.00000,   0.00000
   0.00000,  -0.00000
  -0.00000,   0.00000
  -0.00000,   0.00000
   0.00000,  -0.00000
  -0.00781,   0.00781
   0.00000,  -0.00000
   0.00000,  -0.00000
  -0.00000,   0.00000
   0.00781,  -0.00781
  -0.00781,   0.00781
   0.00000,  -0.00000
  -0.00000,   0.00000
  -0.00000,   0.00000
   0.00000,  -0.00000
  -0.00000,   0.00000
   0.00000,  -0.00000
   0.00781,  -0.00781
  -0.00000,   0.00000
  -0.00000,   0.00000
   0.00000,  -0.00000
  -0.00000,   0.00000
   0.00000,  -0.00000
  -0.00000,   0.00000
   0.00000,  -0.00000
   0.00000,  -0.00000
  -0.00000,   0.00000
  -0.00000,   0.00000
  -0.00000,   0.00000
  -0.00000,   0.00000
   0.00000,  -0.00000
  -0.00000,   0.00000
   0.00000,  -0.00000
   0.00000,  -0.00000
  -0.00000,   0.00000
   0.00000,  -0.00000
  -0.00781,   0.00781
   0.00781,  -0.00781
   0.00000,  -0.00000
  -0.00000,   0.00000
  -0.00000,   0.00000
  -0.00781,   0.00781
   0.00000,  -0.00000
   0.00000,  -0.00000
  -0.00000,   0.00000
  -0.00000,   0.00000
   0.00000,  -0.00000
  -0.00000,   0.00000
   0.00781,  -0.00781
  -0.00000,   0.00000
  -0.00000,   0.00000
   0.00000,  -0.00000
  -0.00000,   0.00000
   0.00000,  -0.00000
   0.00781,  -0.00781
  -0.00000,   0.00000
   0.00000,  -0.00000
  -0.00781,   0.00781
  -0.00781,   0.00781
   0.00000,  -0.00000
  -0.00000,   0.00000
   0.00000,  -0.00000
  -0.00781,   0.00781
   0.00000,  -0.00000
  -0.00000,   0.00000
  -0.00000,   0.00000
   0.00000,  -0.00000
   0.00781,  -0.00781
   0.00000,  -0.00000
   0.00000,  -0.00000
  -0.00781,   0.00781
   0.00000,  -0.00000
   0.00000,  -0.00000
  -0.00000,   0.00000
  -0.00000,   0.00000
   0.01562,  -0.01562
  -0.00000,   0.00000
   0.00000,  -0.00000
  -0.00000,   0.00000
   0.00000,  -0.00000
   0.00000,  -0.00000
  -0.00000,   0.00000
  -0.00000,   0.00000
  -0.00000,   0.00000
  -0.00000,   0.00000
  -0.00000,   0.00000
  -0.00000,   0.00000
   0.00000,  -0.00000
   0.00781,  -0.00781
   0.00000,  -0.00000
  -0.00000,   0.00000
  -0.00000,   0.00000
   0.00781,  -0.00781
   0.00000,  -0.00000
  -0.00000,   0.00000
   0.00000,  -0.00000
  -0.01562,   0.01562
  -0.00000,   0.00000
  -0.00000,   0.00000
  -0.00000,   0.00000
   0.00000,  -0.00000
   0.00000,  -0.00000
   0.00000,  -0.00000
  -0.00000,   0.00000
  -0.00781,   0.00781
   0.00000,  -0.00000
  -0.00000,   0.00000
  -0.00000,   0.00000
   0.00000,  -0.00000
   0.00781,  -0.00781
  -0.00000,   0.00000
   0.00000,  -0.00000
  -0.00781,   0.00781
  -0.00000,   0.00000
   0.00781,  -0.00781
  -0.00000,   0.00000
   0.00000,  -0.00000
  -0.00781,   0.00781
  -0.00000,   0.00000
   0.00000,  -0.00000
  -0.00000,   0.00000
  -0.00000,   0.00000
   0.00781,  -0.00781
  -0.00000,   0.00000
   0.00000,  -0.00000
  -0.00781,   0.00781
   0.00000,  -0.00000
   0.00781,  -0.00781
  -0.00000,   0.00000
  -0.00000,   0.00000
   0.00781,  -0.00781
  -0.00781,   0.00781
   0.01562,  -0.01562
  -0.01562,   0.01562
   0.00781,  -0.00781
   0.01562,  -0.01562
  -0.00781,   0.00781
   0.00781,  -0.00781
  -0.01562,   0.01562
  -0.00781,   0.00781
   0.01562,  -0.01562
  -0.01562,   0.01562
   0.00781,  -0.00781
   0.00781,  -0.00781
  -0.00781,   0.00781
   0.00781,  -0.00781
  -0.01562,   0.01562
  -0.00000,   0.00000
   0.01562,  -0.01562
  -0.00781,   0.00781
   0.00781,  -0.00781
  -0.00781,   0.00781
  -0.00781,   0.00781
  -0.00000,   0.00000
   0.00000,  -0.00000
   0.00000,  -0.00000
   0.00000,  -0.00000
  -0.00000,   0.00000
  -0.00000,   0.00000
  -0.00000,   0.00000
   0.00000,  -0.00000
  -0.00000,   0.00000
   0.00000,  -0.00000
  -0.00000,   0.00000
   0.00781,  -0.00781
  -0.00000,   0.00000
  -0.00000,   0.00000
  -0.00000,   0.00000
   0.00781,  -0.00781
  -0.00000,   0.00000
   0.00000,  -0.00000
   0.00000,  -0.00000
  -0.00781,   0.00781
  -0.00000,   0.00000
   0.00000,  -0.00000
   0.00000,  -0.00000
  -0.00000,   0.00000
   0.00000,  -0.00000
   0.00000,  -0.00000
  -0.00000,   0.00000
   0.00000,  -0.00000
   0.00000,  -0.00000
  -0.00000,   0.00000
   0.00000,  -0.00000
  -0.00000,   0.00000
  -0.00781,   0.00781
  -0.00000,   0.00000
  -0.00000,   0.00000
   0.00000,  -0.00000
  -0.00000,   0.00000
   0.00000,  -0.00000
   0.00000,  -0.00000
  -0.00000,   0.00000
  -0.00000,   0.00000
   0.00781,  -0.00781
  -0.00000,   0.00000
   0.00000,  -0.00000
  -0.00000,   0.00000
   0.00000,  -0.00000
   0.00000,  -0.00000
  -0.00000,   0.00000
   0.00000,  -0.00000
  -0.00781,   0.00781
  -0.00000,   0.00000
  -0.00000,   0.00000
  -0.00781,   0.00781
   0.00000,  -0.00000
  -0.00000,   0.00000
  -0.00000,   0.00000
   0.00781,  -0.00781
   0.00000,  -0.00000
  -0.00000,   0.00000
   0.00000,  -0.00000
  -0.00781,   0.00781
   0.00000,  -0.00000
   0.00000,  -0.00000
   0.00000,  -0.00000
  -0.00000,   0.00000
  -0.00000,   0.00000
  -0.00000,   0.00000
   0.00000,  -0.00000
   0.00000,  -0.00000
  -0.01562,   0.01562
   0.00781,  -0.00781
   0.00781,  -0.00781
  -0.00781,   0.00781
   0.00781,  -0.00781
  -0.01562,   0.01562
  -0.00000,   0.00000
   0.00781,  -0.00781
  -0.00781,   0.00781
   0.00000,  -0.00000
   0.02344,  -0.02344
  -0.00781,   0.00781
   0.00781,  -0.00781
  -0.01562,   0.01562
   0.00781,  -0.00781
   0.00781,  -0.00781
  -0.00781,   0.00781
   0.00781,  -0.00781
  -0.01562,   0.01562
  -0.00781,   0.00781
   0.00781,  -0.00781
  -0.00781,   0.00781
  -0.00000,   0.00000
  -0.00000,   0.00000
   0.00000,  -0.00000
  -0.00000,   0.00000
   0.00000,  -0.00000
  -0.00000,   0.00000
  -0.00000,   0.00000
   0.00781,  -0.00781
  -0.00000,   0.00000
   0.00000,  -0.00000
   0.00000,  -0.00000
  -0.00000,   0.00000
   0.00000,  -0.00000
  -0.00000,   0.00000
  -0.00000,   0.00000
   0.00000,  -0.00000
  -0.00781,   0.00781
  -0.00000,   0.00000
  -0.00000,   0.00000
  -0.00000,   0.00000
   0.00000,  -0.00000
  -0.00781,   0.00781
   0.00000,  -0.00000
   0.00000,  -0.00000
  -0.00000,   0.00000
   0.00000,  -0.00000
  -0.00000,   0.00000
  -0.00000,   0.00000
   0.00000,  -0.00000
   0.00000,  -0.00000
   0.00781,  -0.00781
  -0.00000,   0.00000
  -0.00000,   0.00000
   0.00781,  -0.00781
  -0.00000,   0.00000
  -0.00000,   0.00000
  -0.00000,   0.00000
  -0.00000,   0.00000
   0.00781,  -0.00781
  -0.00000,   0.00000
  -0.00000,   0.00000
   0.00000,  -0.00000
  -0.00000,   0.00000
  -0.00781,   0.00781
   0.00000,  -0.00000
  -0.00000,   0.00000
   0.00000,  -0.00000
  -0.00000,   0.00000
  -0.00781,   0.00781
   0.00000,  -0.00000
   0.00000,  -0.00000
   0.00781,  -0.00781
   0.00000,  -0.00000
  -0.00781,   0.00781
   0.00781,  -0.00781
   0.00781,  -0.00781
  -0.00781,   0.00781
   0.00000,  -0.00000
  -0.00781,   0.00781
   0.00781,  -0.00781
   0.00000,  -0.00000
  -0.00000,   0.00000
   0.00000,  -0.00000
  -0.00000,   0.00000
  -0.00781,   0.00781
   0.00781,  -0.00781
  -0.00781,   0.00781
   0.00781,  -0.00781
   0.00000,  -0.00000
  -0.00781,   0.00781
   0.00000,  -0.00000
  -0.00000,   0.00000
   0.00781,  -0.00781
  -0.00000,   0.00000
  -0.00000,   0.00000
   0.00000,  -0.00000
   0.00000,  -0.00000
  -0.00781,   0.00781
  -0.00000,   0.00000
  -0.00000,   0.00000
   0.00000,  -0.00000
  -0.00000,   0.00000
  -0.00000,   0.00000
   0.00000,  -0.00000
   0.00000,  -0.00000
   0.00781,  -0.00781
   0.00000,  -0.00000
  -0.00000,   0.00000
   0.00000,  -0.00000
  -0.00781,   0.00781
  -0.00781,   0.00781
  -0.00000,   0.00000
  -0.00000,   0.00000
   0.00000,  -0.00000
  -0.00000,   0.00000
  -0.00000,   0.00000
   0.00781,  -0.00781
   0.00781,  -0.00781
  -0.00781,   0.00781
   0.00000,  -0.00000
  -0.00781,   0.00781
   0.00781,  -0.00781
  -0.00000,   0.00000
  -0.00000,   0.00000
   0.00000,  -0.00000
  -0.00000,   0.00000
   0.00781,  -0.00781
   0.00000,  -0.00000
  -0.00781,   0.00781
   0.00781,  -0.00781
  -0.00781,   0.00781
  -0.00781,   0.00781
  -0.00000,   0.00000
  -0.00781,   0.00781
   0.00000,  -0.00000
   0.00000,  -0.00000
   0.00000,  -0.00000
  -0.00000,   0.00000
   0.00781,  -0.00781
  -0.00781,   0.00781
  -0.00000,   0.00000
  -0.00000,   0.00000
  -0.00000,   0.00000
  -0.00781,   0.00781
  -0.00000,   0.00000
  -0.00000,   0.00000
   0.00000,  -0.00000
   0.00781,  -0.00781
   0.00000,  -0.00000
  -0.00000,   0.00000
  -0.00000,   0.00000
   0.00000,  -0.00000
  -0.00781,   0.00781
  -0.00000,   0.00000
  -0.00000,   0.00000
  -0.00000,   0.00000
  -0.00000,   0.00000
  -0.00000,   0.00000
  -0.00000,   0.00000
  -0.00000,   0.00000
  -0.00781,   0.00781
   0.00000,  -0.00000
   0.00000,  -0.00000
   0.00000,  -0.00000
  -0.00000,   0.00000
   0.00000,  -0.00000
   0.00000,  -0.00000
  -0.00000,   0.00000
  -0.00000,   0.00000
   0.00000,  -0.00000
  -0.00000,   0.00000
   0.00000,  -0.00000
  -0.00000,   0.00000
   0.00781,  -0.00781
   0.00000,  -0.00000
  -0.00000,   0.00000
   0.00000,  -0.00000
   0.00000,  -0.00000
   0.00000,  -0.00000
   0.00000,  -0.00000
  -0.00000,   0.00000
  -0.00781,   0.00781
   0.00000,  -0.00000
  -0.00000,   0.00000
   0.00000,  -0.00000
  -0.00781,   0.00781
   0.00000,  -0.00000
  -0.00000,   0.00000
  -0.00000,   0.00000
  -0.00000,   0.00000
   0.00000,  -0.00000
   0.00000,  -0.00000
  -0.00000,   0.00000
  -0.00000,   0.00000
  -0.00781,   0.00781
   0.00000,  -0.00000
  -0.00000,   0.00000
   0.00000,  -0.00000
  -0.00781,   0.00781
   0.00000,  -0.00000
  -0.00000,   0.00000
  -0.00000,   0.00000
  -0.00000,   0.00000
   0.00000,  -0.00000
   0.00000,  -0.00000
   0.00000,  -0.00000
  -0.00000,   0.00000
   0.00000,  -0.00000
  -0.00000,   0.00000
   0.00000,  -0.00000
  -0.00000,   0.00000
   0.00781,  -0.00781
   0.00000,  -0.00000
   0.00000,  -0.00000
  -0.00000,   0.00000
  -0.00000,   0.00000
  -0.00000,   0.00000
   0.00000,  -0.00000
   0.00000,  -0.00000
   0.00781,  -0.00781
  -0.00000,   0.00000
  -0.00000,   0.00000
  -0.00000,   0.00000
  -0.00000,   0.00000
  -0.00000,   0.00000
   0.00000,  -0.00000
   0.00000,  -0.00000
  -0.00000,   0.00000
   0.00000,  -0.00000
  -0.00781,   0.00781
   0.00781,  -0.00781
  -0.00781,   0.00781
  -0.00000,   0.00000
   0.00781,  -0.00781
  -0.00781,   0.00781
   0.00781,  -0.00781
  -0.00000,   0.00000
  -0.00781,   0.00781
   0.00781,  -0.00781
  -0.00781,   0.00781
   0.00781,  -0.00781
  -0.00000,   0.00000
  -0.00000,   0.00000
   0.00781,  -0.00781
  -0.00781,   0.00781
   0.00000,  -0.00000
   0.00781,  -0.00781
  -0.00781,   0.00781
   0.00781,  -0.00781
   0.00781,  -0.00781
  -0.00000,   0.00000
   0.00000,  -0.00000
   0.00000,  -0.00000
  -0.00000,   0.00000
   0.00000,  -0.00000
   0.00000,  -0.00000
  -0.00000,   0.00000
  -0.00000,   0.00000
  -0.00000,   0.00000
   0.00000,  -0.00000
   0.00000,  -0.00000
  -0.00781,   0.00781
   0.00781,  -0.00781
   0.00000,  -0.00000
   0.00000,  -0.00000
  -0.00000,   0.00000
   0.00000,  -0.00000
   0.00000,  -0.00000
   0.00000,  -0.00000
  -0.00000,   0.00000
  -0.00000,   0.00000
  -0.00000,   0.00000
   0.00000,  -0.00000
  -0.00000,   0.00000
  -0.00000,   0.00000
  -0.00000,   0.00000
  -0.00000,   0.00000
   0.00000,  -0.00000
   0.00000,  -0.00000
   0.00000,  -0.00000
  -0.00000,   0.00000
  -0.00000,   0.00000
   0.00000,  -0.00000
  -0.00781,   0.00781
  -0.00000,   0.00000
   0.00000,  -0.00000
  -0.00000,   0.00000
  -0.00781,   0.00781
  -0.00000,   0.00000
  -0.00000,   0.00000
  -0.00000,   0.00000
   0.00000,  -0.00000
   0.00000,  -0.00000
   0.00000,  -0.00000
   0.00000,  -0.00000
   0.00000,  -0.00000
  -0.00781,   0.00781
   0.00000,  -0.00000
  -0.00000,   0.00000
   0.00000,  -0.00000
   0.00781,  -0.00781
  -0.00781,   0.00781
   0.00000,  -0.00000
   0.00000,  -0.00000
   0.00781,  -0.00781
   0.00781,  -0.00781
  -0.00000,   0.00000
   0.00000,  -0.00000
   0.00000,  -0.00000
  -0.00781,   0.00781
   0.00000,  -0.00000
  -0.00000,   0.00000
   0.00000,  -0.00000
  -0.00000,   0.00000
  -0.00000,   0.00000
   0.00000,  -0.00000
  -0.00000,   0.00000
  -0.00781,   0.00781
   0.00781,  -0.00781
  -0.00000,   0.00000
   0.00000,  -0.00000
  -0.00781,   0.00781
  -0.00000,   0.00000
   0.00000,  -0.00000
  -0.00000,   0.00000
   0.00781,  -0.00781
   0.00000,  -0.00000
  -0.00000,   0.00000
   0.00000,  -0.00000
   0.00000,  -0.00000
  -0.00781,   0.00781
  -0.00000,   0.00000
  -0.00000,   0.00000
   0.00000,  -0.00000
  -0.00000,   0.00000
  -0.00000,   0.00000
  -0.00000,   0.00000
  -0.00000,   0.00000
   0.00781,  -0.00781
  -0.00000,   0.00000
  -0.00000,   0.00000
   0.00000,  -0.00000
  -0.00000,   0.00000
  -0.00781,   0.00781
   0.00000,  -0.00000
  -0.00000,   0.00000
   0.00781,  -0.00781
   0.00000,  -0.00000
  -0.00000,   0.00000
   0.00000,  -0.00000
   0.00000,  -0.00000
  -0.00781,   0.00781
   0.00781,  -0.00781
  -0.00000,   0.00000
   0.00000,  -0.00000
   0.00000,  -0.00000
  -0.00781,   0.00781
   0.00000,  -0.00000
  -0.00000,   0.00000
   0.00781,  -0.00781
   0.00000,  -0.00000
  -0.00000,   0.00000
   0.00781,  -0.00781
   0.00000,  -0.00000
  -0.00781,   0.00781
   0.00781,  -0.00781
  -0.00781,   0.00781
   0.00000,  -0.00000
   0.00000,  -0.00000
  -0.00781,   0.00781
  -0.00000,   0.00000
   0.00000,  -0.00000
  -0.00781,   0.00781
   0.00000,  -0.00000
  -0.00000,   0.00000
   0.00781,  -0.00781
   0.00000,  -0.00000
  -0.00781,   0.00781
   0.00000,  -0.00000
  -0.00000,   0.00000
   0.00781,  -0.00781
  -0.00000,   0.00000
  -0.00000,   0.00000
   0.00781,  -0.00781
  -0.00000,   0.00000
  -0.00781,   0.00781
   0.00000,  -0.00000
  -0.00781,   0.00781
   0.00000,  -0.00000
   0.00000,  -0.00000
   0.00000,  -0.00000
  -0.00000,   0.00000
  -0.00000,   0.00000
  -0.00781,   0.00781
   0.00000,  -0.00000
   0.00000,  -0.00000
   0.00000,  -0.00000
   0.00781,  -0.00781
   0.00000,  -0.00000
  -0.00000,   0.00000
  -0.00000,   0.00000
  -0.00000,   0.00000
  -0.00000,   0.00000
   0.00000,  -0.00000
   0.00000,  -0.00000
  -0.00781,   0.00781
   0.00781,  -0.00781
   0.00000,  -0.00000
   0.00000,  -0.00000
  -0.00000,   0.00000
  -0.00000,   0.00000
   0.00000,  -0.00000
  -0.00000,   0.00000
   0.00000,  -0.00000
   0.00000,  -0.00000
   0.00000,  -0.00000
   0.00000,  -0.00000
  -0.00000,   0.00000
  -0.00000,   0.00000
  -0.00000,   0.00000
  -0.00000,   0.00000
  -0.00000,   0.00000
  -0.00000,   0.00000
  -0.00000,   0.00000
   0.00781,  -0.00781
  -0.00000,   0.00000
   0.00000,  -0.00000
   0.00000,  -0.00000
   0.00000,  -0.00000
   0.00000,  -0.00000
   0.00000,  -0.00000
   0.00000,  -0.00000
   0.00000,  -0.00000
  -0.00000,   0.00000
  -0.00000,   0.00000
   0.00000,  -0.00000
  -0.00000,   0.00000
  -0.00000,   0.00000
  -0.00000,   0.00000
  -0.00000,   0.00000
  -0.00781,   0.00781
   0.00000,  -0.00000
  -0.00000,   0.00000
   0.00000,  -0.00000
   0.00000,  -0.00000
  -0.00000,   0.00000
   0.00000,  -0.00000
   0.00000,  -0.00000
   0.00781,  -0.00781
   0.00781,  -0.00781
  -0.00781,   0.00781
   0.00000,  -0.00000
  -0.00000,   0.00000
  -0.00000,   0.00000
   0.00000,  -0.00000
  -0.00000,   0.00000
  -0.00000,   0.00000
  -0.00000,   0.00000
  -0.00000,   0.00000
  -0.00000,   0.00000
   0.00000,  -0.00000
  -0.00781,   0.00781
  -0.00000,   0.00000
  -0.00000,   0.00000
  -0.00000,   0.00000
  -0.00781,   0.00781
   0.00000,  -0.00000
  -0.00000,   0.00000
  -0.00000,   0.00000
   0.00781,  -0.00781
   0.00000,  -0.00000
   0.00000,  -0.00000
   0.00000,  -0.00000
   0.00000,  -0.00000
  -0.00781,   0.00781
  -0.00000,   0.00000
   0.00000,  -0.00000
  -0.00000,   0.00000
  -0.00781,   0.00781
   0.00000,  -0.00000
  -0.00000,   0.00000
  -0.00000,   0.00000
   0.00781,  -0.00781
   0.00781,  -0.00781
  -0.00000,   0.00000
   0.00781,  -0.00781
   0.00000,  -0.00000
  -0.00781,   0.00781
  -0.00000,   0.00000
  -0.00000,   0.00000
   0.00781,  -0.00781
  -0.00000,   0.00000
  -0.00000,   0.00000
  -0.00000,   0.00000
  -0.00000,   0.00000
  -0.00781,   0.00781
   0.00000,  -0.00000
  -0.00000,   0.00000
   0.00000,  -0.00000
  -0.00000,   0.00000
  -0.00000,   0.00000
  -0.00000,   0.00000
  -0.00000,   0.00000
   0.00781,  -0.00781
   0.00000,  -0.00000
  -0.00000,   0.00000
   0.00781,  -0.00781
  -0.00000,   0.00000
  -0.00781,   0.00781
   0.00000,  -0.00000
  -0.00781,   0.00781
   0.00781,  -0.00781
   0.00000,  -0.00000
  -0.00781,   0.00781
   0.00000,  -0.00000
   0.00000,  -0.00000
  -0.00781,   0.00781
   0.00000,  -0.00000
  -0.00000,   0.00000
   0.00000,  -0.00000
  -0.00000,   0.00000
  -0.00781,   0.00781
   0.00000,  -0.00000
  -0.00000,   0.00000
   0.00781,  -0.00781
  -0.00000,   0.00000
  -0.00000,   0.00000
   0.00000,  -0.00000
  -0.00000,   0.00000
  -0.00000,   0.00000
   0.00000,  -0.00000
   0.00000,  -0.00000
  -0.00000,   0.00000
  -0.00000,   0.00000
   0.00000,  -0.00000
   0.00000,  -0.00000
   0.00000,  -0.00000
   0.00781,  -0.00781
   0.00000,  -0.00000
   0.00000,  -0.00000
   0.00000,  -0.00000
  -0.00781,   0.00781
  -0.00000,   0.00000
  -0.00000,   0.00000
  -0.00000,   0.00000
   0.00000,  -0.00000
   0.00000,  -0.00000
  -0.00000,   0.00000
   0.00000,  -0.00000
  -0.00000,   0.00000
  -0.00781,   0.00781
  -0.00000,   0.00000
  -0.00000,   0.00000
   0.00000,  -0.00000
   0.00000,  -0.00000
  -0.00000,   0.00000
  -0.00000,   0.00000
   0.00000,  -0.00000
   0.00781,  -0.00781
  -0.00000,   0.00000
  -0.00000,   0.00000
  -0.00000,   0.00000
  -0.00000,   0.00000
  -0.00781,   0.00781
   0.00000,  -0.00000
  -0.00000,   0.00000
  -0.00000,   0.00000
  -0.00000,   0.00000
  -0.00000,   0.00000
  -0.00000,   0.00000
   0.00000,  -0.00000
   0.00781,  -0.00781
   0.00000,  -0.00000
  -0.00000,   0.00000
   0.00000,  -0.00000
  -0.00000,   0.00000
  -0.00781,   0.00781
   0.00000,  -0.00000
  -0.00000,   0.00000
   0.00781,  -0.00781
   0.00000,  -0.00000
  -0.00000,   0.00000
   0.00000,  -0.00000
   0.00000,  -0.00000
  -0.00781,   0.00781
   0.00000,  -0.00000
   0.00000,  -0.00000
   0.00781,  -0.00781
  -0.00000,   0.00000
  -0.00000,   0.00000
   0.00000,  -0.00000
  -0.00000,   0.00000
   0.00781,  -0.00781
   0.00000,  -0.00000
  -0.00000,   0.00000
   0.00000,  -0.00000
  -0.00000,   0.00000
  -0.00781,   0.00781
  -0.00000,   0.00000
  -0.00000,   0.00000
   0.00000,  -0.00000
   0.00000,  -0.00000
  -0.00000,   0.00000
   0.00000,  -0.00000
   0.00781,  -0.00781
  -0.00781,   0.00781
   0.00000,  -0.00000
  -0.00781,   0.00781
   0.00000,  -0.00000
  -0.00781,   0.00781
  -0.00781,   0.00781
  -0.00000,   0.00000
  -0.00000,   0.00000
   0.00781,  -0.00781
  -0.00000,   0.00000
   0.00000,  -0.00000
   0.00000,  -0.00000
   0.00000,  -0.00000
  -0.00781,   0.00781
  -0.00000,   0.00000
   0.00781,  -0.00781
  -0.00000,   0.00000
   0.00000,  -0.00000
   0.00781,  -0.00781
  -0.00000,   0.00000
   0.00781,  -0.00781
  -0.00781,   0.00781
  -0.00781,   0.00781
   0.00781,  -0.00781
  -0.00781,   0.00781
  -0.00781,   0.00781
   0.00781,  -0.00781
   0.00781,  -0.00781
   0.00000,  -0.00000
  -0.01562,   0.01562
   0.00781,  -0.00781
   0.00781,  -0.00781
   0.00000,  -0.00000
  -0.00000,   0.00000
   0.01562,  -0.01562
   0.00000,  -0.00000
  -0.00000,   0.00000
   0.00000,  -0.00000
   0.00781,  -0.00781
   0.00781,  -0.00781
  -0.00781,   0.00781
   0.00781,  -0.00781
  -0.01562,   0.01562
   0.00781,  -0.00781
   0.00781,  -0.00781
  -0.00781,   0.00781
   0.00000,  -0.00000
   0.00781,  -0.00781
  -0.00000,   0.00000
   0.00000,  -0.00000
  -0.00781,   0.00781
   0.00781,  -0.00781
   0.00781,  -0.00781
  -0.00781,   0.00781
   0.00781,  -0.00781
  -0.01562,   0.01562
   0.00000,  -0.00000
   0.00781,  -0.00781
  -0.00781,   0.00781
   0.01562,  -0.01562
   0.00781,  -0.00781
  -0.00000,   0.00000
   0.00781,  -0.00781
  -0.00781,   0.00781
   0.00781,  -0.00781
   0.00781,  -0.00781
  -0.00781,   0.00781
   0.00781,  -0.00781
   0.00781,  -0.00781
  -0.00000,   0.00000
   0.00781,  -0.00781
  -0.00781,   0.00781
   0.00000,  -0.00000
   0.00781,  -0.00781
   0.00781,  -0.00781
  -0.00781,   0.00781
   0.00781,  -0.00781
   0.00781,  -0.00781
  -0.00781,   0.00781
   0.00781,  -0.00781
  -0.00000,   0.00000
  -0.00781,   0.00781
   0.00781,  -0.00781
  -0.00781,   0.00781
   0.00781,  -0.00781
   0.00781,  -0.00781
  -0.00000,   0.00000
   0.00000,  -0.00000
  -0.00781,   0.00781
  -0.00781,   0.00781
   0.00000,  -0.00000
  -0.00781,   0.00781
   0.00781,  -0.00781
  -0.00781,   0.00781
  -0.00000,   0.00000
   0.00000,  -0.00000
  -0.00781,   0.00781
   0.00781,  -0.00781
   0.00000,  -0.00000
  -0.00000,   0.00000
   0.00000,  -0.00000
  -0.00781,   0.00781
   0.00000,  -0.00000
   0.00000,  -0.00000
   0.00000,  -0.00000
  -0.00000,   0.00000
  -0.00781,   0.00781
  -0.00000,   0.00000
   0.00781,  -0.00781
  -0.00000,   0.00000
  -0.02344,   0.02344
   0.00781,  -0.00781
   0.00000,  -0.00000
  -0.00000,   0.00000
   0.00000,  -0.00000
   0.00781,  -0.00781
   0.00000,  -0.00000
   0.00000,  -0.00000
  -0.00781,   0.00781
   0.00781,  -0.00781
   0.00781,  -0.00781
  -0.00000,   0.00000
  -0.00000,   0.00000
   0.00781,  -0.00781
   0.00781,  -0.00781
   0.00000,  -0.00000
  -0.00781,   0.00781
   0.01562,  -0.01562
   0.00781,  -0.00781
   0.00000,  -0.00000
